<?xml version="1.0" encoding="UTF-8"?>
<BIF VERSION="0.3"  xmlns="http://www.cs.ubc.ca/labs/lci/fopi/ve/XMLBIFv0_3"
	xmlns:xsi="http://www.w3.org/2001/XMLSchema-instance"
	xsi:schemaLocation="http://www.cs.ubc.ca/labs/lci/fopi/ve/XMLBIFv0_3 http://www.cs.ubc.ca/labs/lci/fopi/ve/XMLBIFv0_3/XMLBIFv0_3.xsd">
<NETWORK>
<NAME>Untitled</NAME>
<PROPERTY>detailed = </PROPERTY>
<PROPERTY>short = </PROPERTY>

<VARIABLE TYPE="nature">
	<NAME>Visibility</NAME>
	<OUTCOME>high</OUTCOME>
	<OUTCOME>low</OUTCOME>
	<PROPERTY>position = (7217.02685546875, 5037.33642578125)</PROPERTY>
</VARIABLE>

<VARIABLE TYPE="nature">
	<NAME>Weather</NAME>
	<OUTCOME>sunny</OUTCOME>
	<OUTCOME>overcast</OUTCOME>
	<OUTCOME>raining</OUTCOME>
	<PROPERTY>position = (7190.96630859375, 4905.240234375)</PROPERTY>
</VARIABLE>

<VARIABLE TYPE="nature">
	<NAME>Roadwork</NAME>
	<OUTCOME>T</OUTCOME>
	<OUTCOME>F</OUTCOME>
	<PROPERTY>position = (7574.4091796875, 4983.96923828125)</PROPERTY>
</VARIABLE>

<VARIABLE TYPE="nature">
	<NAME>Roadwork Information</NAME>
	<OUTCOME>roadwork</OUTCOME>
	<OUTCOME>no_roadwork</OUTCOME>
	<PROPERTY>position = (7581.05029296875, 5102.7099609375)</PROPERTY>
</VARIABLE>

<VARIABLE TYPE="nature">
	<NAME>Time</NAME>
	<OUTCOME>peak</OUTCOME>
	<OUTCOME>off_peak</OUTCOME>
	<PROPERTY>position = (8037.20068359375, 4901.8505859375)</PROPERTY>
</VARIABLE>

<VARIABLE TYPE="nature">
	<NAME>Day</NAME>
	<OUTCOME>working_day</OUTCOME>
	<OUTCOME>holiday</OUTCOME>
	<PROPERTY>position = (7805.03369140625, 4907.91796875)</PROPERTY>
</VARIABLE>

<VARIABLE TYPE="nature">
	<NAME>Visibility Sensor</NAME>
	<OUTCOME>indicate_high</OUTCOME>
	<OUTCOME>indicate_low</OUTCOME>
	<PROPERTY>position = (7340.76220703125, 5158.16162109375)</PROPERTY>
</VARIABLE>

<VARIABLE TYPE="nature">
	<NAME>Traffic Congestion</NAME>
	<OUTCOME>T</OUTCOME>
	<OUTCOME>F</OUTCOME>
	<PROPERTY>position = (7586.79833984375, 5231.95751953125)</PROPERTY>
</VARIABLE>

<VARIABLE TYPE="nature">
	<NAME>Piezoelectric Sensor</NAME>
	<OUTCOME>indicate_high</OUTCOME>
	<OUTCOME>indicate_low</OUTCOME>
	<PROPERTY>position = (7861.22900390625, 5137.251953125)</PROPERTY>
</VARIABLE>

<VARIABLE TYPE="nature">
	<NAME>Traffic Flow</NAME>
	<OUTCOME>high</OUTCOME>
	<OUTCOME>low</OUTCOME>
	<PROPERTY>position = (7942.35107421875, 5027.08349609375)</PROPERTY>
</VARIABLE>

<VARIABLE TYPE="nature">
	<NAME>Alert</NAME>
	<OUTCOME>T</OUTCOME>
	<OUTCOME>F</OUTCOME>
	<PROPERTY>position = (7588.98193359375, 5356.1494140625)</PROPERTY>
</VARIABLE>

<DEFINITION>
	<FOR>Visibility</FOR>
	<GIVEN>Weather</GIVEN>
	<TABLE>1.0 0.0 0.5 0.5 0.25 0.75</TABLE>
</DEFINITION>

<DEFINITION>
	<FOR>Weather</FOR>
	<TABLE>0.75 0.15 0.1</TABLE>
</DEFINITION>

<DEFINITION>
	<FOR>Roadwork</FOR>
	<GIVEN>Weather</GIVEN>
	<GIVEN>Day</GIVEN>
	<TABLE>0.15 0.85 0.06 0.94 0.12 0.88 0.05 0.95 0.04 0.96 0.02 0.98</TABLE>
</DEFINITION>

<DEFINITION>
	<FOR>Roadwork Information</FOR>
	<GIVEN>Roadwork</GIVEN>
	<TABLE>0.97 0.03 0.03 0.97</TABLE>
</DEFINITION>

<DEFINITION>
	<FOR>Time</FOR>
	<TABLE>0.33 0.67</TABLE>
</DEFINITION>

<DEFINITION>
	<FOR>Day</FOR>
	<TABLE>0.75 0.25</TABLE>
</DEFINITION>

<DEFINITION>
	<FOR>Visibility Sensor</FOR>
	<GIVEN>Visibility</GIVEN>
	<TABLE>0.99 0.01 0.01 0.99</TABLE>
</DEFINITION>

<DEFINITION>
	<FOR>Traffic Congestion</FOR>
	<GIVEN>Roadwork Information</GIVEN>
	<GIVEN>Visibility Sensor</GIVEN>
	<GIVEN>Piezoelectric Sensor</GIVEN>
	<TABLE>0.95 0.05 0.3 0.7 0.97 0.03 0.4 0.6 0.75 0.25 0.04 0.96 0.8 0.2 0.25 0.75</TABLE>
</DEFINITION>

<DEFINITION>
	<FOR>Piezoelectric Sensor</FOR>
	<GIVEN>Traffic Flow</GIVEN>
	<TABLE>0.9 0.1 0.1 0.9</TABLE>
</DEFINITION>

<DEFINITION>
	<FOR>Traffic Flow</FOR>
	<GIVEN>Time</GIVEN>
	<GIVEN>Day</GIVEN>
	<TABLE>0.95 0.05 0.8 0.2 0.3 0.7 0.1 0.9</TABLE>
</DEFINITION>

<DEFINITION>
	<FOR>Alert</FOR>
	<GIVEN>Traffic Congestion</GIVEN>
	<TABLE>0.8 0.2 0.2 0.8</TABLE>
</DEFINITION>
</NETWORK>
</BIF>
